<?xml version="1.0"?>
<opencv_storage>
<cascade25 type_id="opencv-haar-classifier">
  <size>
    24 24</size>
  <stages>
    <_>
      <!-- stage 0 -->
      <trees>
        <_>
          <!-- tree 0 -->
          <_>
            <!-- root node -->
            <feature>
              <rects>
                <_>
                  5 16 13 6 -1.</_>
                <_>
                  5 19 13 3 2.</_></rects>
              <tilted>0</tilted></feature>
            <threshold>-0.0202897991985083</threshold>
            <left_val>0.5025501251220703</left_val>
            <right_val>-0.4522908926010132</right_val></_></_>
        <_>
          <!-- tree 1 -->
          <_>
            <!-- root node -->
            <feature>
              <rects>
                <_>
                  0 6 24 15 -1.</_>
                <_>
                  6 6 12 15 2.</_></rects>
              <tilted>0</tilted></feature>
            <threshold>0.0868841186165810</threshold>
            <left_val>-0.3967589139938355</left_val>
            <right_val>0.3791444897651672</right_val></_></_>
        <_>
          <!-- tree 2 -->
          <_>
            <!-- root node -->
            <feature>
              <rects>
                <_>
                  10 18 3 3 -1.</_>
                <_>
                  11 18 1 3 3.</_></rects>
              <tilted>0</tilted></feature>
            <threshold>1.1592439841479063e-003</threshold>
            <left_val>0.1071187034249306</left_val>
            <right_val>-0.6805309057235718</right_val></_></_>
        <_>
          <!-- tree 3 -->
          <_>
            <!-- root node -->
            <feature>
              <rects>
                <_>
                  19 7 1 2 -1.</_>
                <_>
                  19 7 1 1 2.</_></rects>
              <tilted>1</tilted></feature>
            <threshold>1.5735470515210181e-004</threshold>
            <left_val>0.1111410036683083</left_val>
            <right_val>-0.2730540037155151</right_val></_></_>
        <_>
          <!-- tree 4 -->
          <_>
            <!-- root node -->
            <feature>
              <rects>
                <_>
                  1 13 5 3 -1.</_>
                <_>
                  1 14 5 1 3.</_></rects>
              <tilted>0</tilted></feature>
            <threshold>1.7930639442056417e-003</threshold>
            <left_val>0.1050219982862473</left_val>
            <right_val>-0.6418161988258362</right_val></_></_>
        <_>
          <!-- tree 5 -->
          <_>
            <!-- root node -->
            <feature>
              <rects>
                <_>
                  18 9 2 1 -1.</_>
                <_>
                  18 9 1 1 2.</_></rects>
              <tilted>0</tilted></feature>
            <threshold>-1.8036770052276552e-004</threshold>
            <left_val>-0.2215452045202255</left_val>
            <right_val>0.0443468987941742</right_val></_></_>
        <_>
          <!-- tree 6 -->
          <_>
            <!-- root node -->
            <feature>
              <rects>
                <_>
                  4 9 2 1 -1.</_>
                <_>
                  5 9 1 1 2.</_></rects>
              <tilted>0</tilted></feature>
            <threshold>4.2029099859064445e-005</threshold>
            <left_val>-0.2767665088176727</left_val>
            <right_val>0.2320332974195480</right_val></_></_>
        <_>
          <!-- tree 7 -->
          <_>
            <!-- root node -->
            <feature>
              <rects>
                <_>
                  12 20 1 2 -1.</_>
                <_>
                  12 21 1 1 2.</_></rects>
              <tilted>0</tilted></feature>
            <threshold>-2.7445988962426782e-004</threshold>
            <left_val>0.2642093896865845</left_val>
            <right_val>-0.1953192055225372</right_val></_></_>
        <_>
          <!-- tree 8 -->
          <_>
            <!-- root node -->
            <feature>
              <rects>
                <_>
                  7 17 3 2 -1.</_>
                <_>
                  8 18 1 2 3.</_></rects>
              <tilted>1</tilted></feature>
            <threshold>2.3938480298966169e-003</threshold>
            <left_val>0.0604201406240463</left_val>
            <right_val>-0.6372703909873962</right_val></_></_>
        <_>
          <!-- tree 9 -->
          <_>
            <!-- root node -->
            <feature>
              <rects>
                <_>
                  17 17 2 3 -1.</_>
                <_>
                  16 18 2 1 3.</_></rects>
              <tilted>1</tilted></feature>
            <threshold>2.7303129900246859e-003</threshold>
            <left_val>0.0773861035704613</left_val>
            <right_val>-0.6531425714492798</right_val></_></_>
        <_>
          <!-- tree 10 -->
          <_>
            <!-- root node -->
            <feature>
              <rects>
                <_>
                  7 17 3 2 -1.</_>
                <_>
                  8 18 1 2 3.</_></rects>
              <tilted>1</tilted></feature>
            <threshold>-1.6116050537675619e-003</threshold>
            <left_val>-0.5376769900321960</left_val>
            <right_val>0.0944676175713539</right_val></_></_>
        <_>
          <!-- tree 11 -->
          <_>
            <!-- root node -->
            <feature>
              <rects>
                <_>
                  8 20 8 4 -1.</_>
                <_>
                  8 22 8 2 2.</_></rects>
              <tilted>0</tilted></feature>
            <threshold>7.6007298193871975e-003</threshold>
            <left_val>-0.1483877003192902</left_val>
            <right_val>0.3907690048217773</right_val></_></_>
        <_>
          <!-- tree 12 -->
          <_>
            <!-- root node -->
            <feature>
              <rects>
                <_>
                  9 18 4 3 -1.</_>
                <_>
                  10 18 2 3 2.</_></rects>
              <tilted>0</tilted></feature>
            <threshold>-2.4341610260307789e-003</threshold>
            <left_val>-0.6860616207122803</left_val>
            <right_val>0.0787992030382156</right_val></_></_>
        <_>
          <!-- tree 13 -->
          <_>
            <!-- root node -->
            <feature>
              <rects>
                <_>
                  1 12 22 3 -1.</_>
                <_>
                  1 13 22 1 3.</_></rects>
              <tilted>0</tilted></feature>
            <threshold>0.0115932701155543</threshold>
            <left_val>0.0384743511676788</left_val>
            <right_val>-0.9043970704078674</right_val></_></_>
        <_>
          <!-- tree 14 -->
          <_>
            <!-- root node -->
            <feature>
              <rects>
                <_>
                  11 2 3 4 -1.</_>
                <_>
                  10 3 3 2 2.</_></rects>
              <tilted>1</tilted></feature>
            <threshold>-4.1041160002350807e-003</threshold>
            <left_val>-0.5363926887512207</left_val>
            <right_val>0.0723212435841560</right_val></_></_>
        <_>
          <!-- tree 15 -->
          <_>
            <!-- root node -->
            <feature>
              <rects>
                <_>
                  15 7 2 2 -1.</_>
                <_>
                  15 8 2 1 2.</_></rects>
              <tilted>0</tilted></feature>
            <threshold>1.7928540182765573e-004</threshold>
            <left_val>-0.1008964031934738</left_val>
            <right_val>0.1076819971203804</right_val></_></_>
        <_>
          <!-- tree 16 -->
          <_>
            <!-- root node -->
            <feature>
              <rects>
                <_>
                  7 7 2 2 -1.</_>
                <_>
                  7 8 2 1 2.</_></rects>
              <tilted>0</tilted></feature>
            <threshold>3.0734899337403476e-004</threshold>
            <left_val>-0.1654338985681534</left_val>
            <right_val>0.3089270889759064</right_val></_></_>
        <_>
          <!-- tree 17 -->
          <_>
            <!-- root node -->
            <feature>
              <rects>
                <_>
                  14 6 7 3 -1.</_>
                <_>
                  14 7 7 1 3.</_></rects>
              <tilted>0</tilted></feature>
            <threshold>-1.4703850029036403e-003</threshold>
            <left_val>-0.3485830128192902</left_val>
            <right_val>0.0773448869585991</right_val></_></_>
        <_>
          <!-- tree 18 -->
          <_>
            <!-- root node -->
            <feature>
              <rects>
                <_>
                  7 7 1 3 -1.</_>
                <_>
                  6 8 1 1 3.</_></rects>
              <tilted>1</tilted></feature>
            <threshold>1.5525410417467356e-003</threshold>
            <left_val>0.0983406603336334</left_val>
            <right_val>-0.5424143075942993</right_val></_></_>
        <_>
          <!-- tree 19 -->
          <_>
            <!-- root node -->
            <feature>
              <rects>
                <_>
                  21 13 2 3 -1.</_>
                <_>
                  21 14 2 1 3.</_></rects>
              <tilted>0</tilted></feature>
            <threshold>1.4551680069416761e-003</threshold>
            <left_val>0.0370405688881874</left_val>
            <right_val>-0.6226997971534729</right_val></_></_>
        <_>
          <!-- tree 20 -->
          <_>
            <!-- root node -->
            <feature>
              <rects>
                <_>
                  1 13 2 3 -1.</_>
                <_>
                  1 14 2 1 3.</_></rects>
              <tilted>0</tilted></feature>
            <threshold>-1.1432570172473788e-003</threshold>
            <left_val>-0.6234418749809265</left_val>
            <right_val>0.0687165036797524</right_val></_></_>
        <_>
          <!-- tree 21 -->
          <_>
            <!-- root node -->
            <feature>
              <rects>
                <_>
                  16 19 3 2 -1.</_>
                <_>
                  17 20 1 2 3.</_></rects>
              <tilted>1</tilted></feature>
            <threshold>-1.4745850348845124e-003</threshold>
            <left_val>0.2171757072210312</left_val>
            <right_val>-0.1014529019594193</right_val></_></_>
        <_>
          <!-- tree 22 -->
          <_>
            <!-- root node -->
            <feature>
              <rects>
                <_>
                  8 5 6 3 -1.</_>
                <_>
                  10 6 2 1 9.</_></rects>
              <tilted>0</tilted></feature>
            <threshold>0.0130269601941109</threshold>
            <left_val>0.0579181686043739</left_val>
            <right_val>-0.7556651234626770</right_val></_></_></trees>
      <stage_threshold>-1.3585350513458252</stage_threshold>
      <parent>-1</parent>
      <next>-1</next></_>
    <_>
      <!-- stage 1 -->
      <trees>
        <_>
          <!-- tree 0 -->
          <_>
            <!-- root node -->
            <feature>
              <rects>
                <_>
                  10 19 4 2 -1.</_>
                <_>
                  10 20 4 1 2.</_></rects>
              <tilted>0</tilted></feature>
            <threshold>-8.6871488019824028e-004</threshold>
            <left_val>0.4104276001453400</left_val>
            <right_val>-0.4294950962066650</right_val></_></_>
        <_>
          <!-- tree 1 -->
          <_>
            <!-- root node -->
            <feature>
              <rects>
                <_>
                  17 6 4 9 -1.</_>
                <_>
                  17 6 2 9 2.</_></rects>
              <tilted>0</tilted></feature>
            <threshold>2.2558430209755898e-003</threshold>
            <left_val>-0.2563732862472534</left_val>
            <right_val>0.2114966958761215</right_val></_></_>
        <_>
          <!-- tree 2 -->
          <_>
            <!-- root node -->
            <feature>
              <rects>
                <_>
                  3 6 4 9 -1.</_>
                <_>
                  5 6 2 9 2.</_></rects>
              <tilted>0</tilted></feature>
            <threshold>2.1103359758853912e-003</threshold>
            <left_val>-0.3409016132354736</left_val>
            <right_val>0.2580518126487732</right_val></_></_>
        <_>
          <!-- tree 3 -->
          <_>
            <!-- root node -->
            <feature>
              <rects>
                <_>
                  11 20 3 1 -1.</_>
                <_>
                  12 20 1 1 3.</_></rects>
              <tilted>0</tilted></feature>
            <threshold>-3.8594761281274259e-004</threshold>
            <left_val>-0.5276684761047363</left_val>
            <right_val>0.0848323181271553</right_val></_></_>
        <_>
          <!-- tree 4 -->
          <_>
            <!-- root node -->
            <feature>
              <rects>
                <_>
                  7 5 10 2 -1.</_>
                <_>
                  7 6 10 1 2.</_></rects>
              <tilted>0</tilted></feature>
            <threshold>-1.0571189923211932e-003</threshold>
            <left_val>-0.4045617878437042</left_val>
            <right_val>0.1420194953680039</right_val></_></_>
        <_>
          <!-- tree 5 -->
          <_>
            <!-- root node -->
            <feature>
              <rects>
                <_>
                  17 16 2 3 -1.</_>
                <_>
                  16 17 2 1 3.</_></rects>
              <tilted>1</tilted></feature>
            <threshold>-1.5379460528492928e-003</threshold>
            <left_val>-0.4747351109981537</left_val>
            <right_val>0.0845316126942635</right_val></_></_>
        <_>
          <!-- tree 6 -->
          <_>
            <!-- root node -->
            <feature>
              <rects>
                <_>
                  1 16 4 3 -1.</_>
                <_>
                  1 17 4 1 3.</_></rects>
              <tilted>0</tilted></feature>
            <threshold>1.9208469893783331e-003</threshold>
            <left_val>0.0823111385107040</left_val>
            <right_val>-0.6430773138999939</right_val></_></_>
        <_>
          <!-- tree 7 -->
          <_>
            <!-- root node -->
            <feature>
              <rects>
                <_>
                  0 1 24 9 -1.</_>
                <_>
                  0 4 24 3 3.</_></rects>
              <tilted>0</tilted></feature>
            <threshold>-0.0881995633244514</threshold>
            <left_val>-0.6834154129028320</left_val>
            <right_val>0.0674260631203651</right_val></_></_>
        <_>
          <!-- tree 8 -->
          <_>
            <!-- root node -->
            <feature>
              <rects>
                <_>
                  9 9 4 8 -1.</_>
                <_>
                  9 11 4 4 2.</_></rects>
              <tilted>0</tilted></feature>
            <threshold>2.8132998850196600e-003</threshold>
            <left_val>-0.2522436082363129</left_val>
            <right_val>0.2218357026576996</right_val></_></_>
        <_>
          <!-- tree 9 -->
          <_>
            <!-- root node -->
            <feature>
              <rects>
                <_>
                  15 8 7 3 -1.</_>
                <_>
                  15 9 7 1 3.</_></rects>
              <tilted>0</tilted></feature>
            <threshold>-5.6971879675984383e-003</threshold>
            <left_val>-0.7721083164215088</left_val>
            <right_val>0.0615605488419533</right_val></_></_>
        <_>
          <!-- tree 10 -->
          <_>
            <!-- root node -->
            <feature>
              <rects>
                <_>
                  7 16 3 2 -1.</_>
                <_>
                  8 17 1 2 3.</_></rects>
              <tilted>1</tilted></feature>
            <threshold>-1.1329200351610780e-003</threshold>
            <left_val>-0.5059478878974915</left_val>
            <right_val>0.0953898876905441</right_val></_></_>
        <_>
          <!-- tree 11 -->
          <_>
            <!-- root node -->
            <feature>
              <rects>
                <_>
                  11 5 3 1 -1.</_>
                <_>
                  12 5 1 1 3.</_></rects>
              <tilted>0</tilted></feature>
            <threshold>3.0647471430711448e-004</threshold>
            <left_val>0.0713524371385574</left_val>
            <right_val>-0.3012340068817139</right_val></_></_>
        <_>
          <!-- tree 12 -->
          <_>
            <!-- root node -->
            <feature>
              <rects>
                <_>
                  10 5 3 1 -1.</_>
                <_>
                  11 5 1 1 3.</_></rects>
              <tilted>0</tilted></feature>
            <threshold>5.1033048657700419e-004</threshold>
            <left_val>0.0884955823421478</left_val>
            <right_val>-0.5586314797401428</right_val></_></_>
        <_>
          <!-- tree 13 -->
          <_>
            <!-- root node -->
            <feature>
              <rects>
                <_>
                  15 8 7 3 -1.</_>
                <_>
                  15 9 7 1 3.</_></rects>
              <tilted>0</tilted></feature>
            <threshold>0.0131533797830343</threshold>
            <left_val>-7.7779921703040600e-003</left_val>
            <right_val>-0.9336109757423401</right_val></_></_>
        <_>
          <!-- tree 14 -->
          <_>
            <!-- root node -->
            <feature>
              <rects>
                <_>
                  1 12 4 3 -1.</_>
                <_>
                  1 13 4 1 3.</_></rects>
              <tilted>0</tilted></feature>
            <threshold>-1.6822640318423510e-003</threshold>
            <left_val>-0.5954933166503906</left_val>
            <right_val>0.0757965296506882</right_val></_></_>
        <_>
          <!-- tree 15 -->
          <_>
            <!-- root node -->
            <feature>
              <rects>
                <_>
                  15 8 7 3 -1.</_>
                <_>
                  15 9 7 1 3.</_></rects>
              <tilted>0</tilted></feature>
            <threshold>3.1595639884471893e-003</threshold>
            <left_val>0.0208796504884958</left_val>
            <right_val>-0.3370104134082794</right_val></_></_>
        <_>
          <!-- tree 16 -->
          <_>
            <!-- root node -->
            <feature>
              <rects>
                <_>
                  2 8 7 3 -1.</_>
                <_>
                  2 9 7 1 3.</_></rects>
              <tilted>0</tilted></feature>
            <threshold>-1.9786660559475422e-003</threshold>
            <left_val>-0.5005040764808655</left_val>
            <right_val>0.0909013226628304</right_val></_></_>
        <_>
          <!-- tree 17 -->
          <_>
            <!-- root node -->
            <feature>
              <rects>
                <_>
                  5 20 15 2 -1.</_>
                <_>
                  5 21 15 1 2.</_></rects>
              <tilted>0</tilted></feature>
            <threshold>-5.6248442269861698e-003</threshold>
            <left_val>0.3313288986682892</left_val>
            <right_val>-0.1378698050975800</right_val></_></_>
        <_>
          <!-- tree 18 -->
          <_>
            <!-- root node -->
            <feature>
              <rects>
                <_>
                  0 6 2 12 -1.</_>
                <_>
                  1 6 1 12 2.</_></rects>
              <tilted>0</tilted></feature>
            <threshold>-1.5591999981552362e-003</threshold>
            <left_val>0.3191818892955780</left_val>
            <right_val>-0.1376928985118866</right_val></_></_>
        <_>
          <!-- tree 19 -->
          <_>
            <!-- root node -->
            <feature>
              <rects>
                <_>
                  7 2 15 2 -1.</_>
                <_>
                  7 3 15 1 2.</_></rects>
              <tilted>0</tilted></feature>
            <threshold>2.4414900690317154e-003</threshold>
            <left_val>-0.1231893002986908</left_val>
            <right_val>0.2331655025482178</right_val></_></_>
        <_>
          <!-- tree 20 -->
          <_>
            <!-- root node -->
            <feature>
              <rects>
                <_>
                  9 3 1 3 -1.</_>
                <_>
                  8 4 1 1 3.</_></rects>
              <tilted>1</tilted></feature>
            <threshold>1.5155980363488197e-003</threshold>
            <left_val>0.0915059298276901</left_val>
            <right_val>-0.5551776885986328</right_val></_></_>
        <_>
          <!-- tree 21 -->
          <_>
            <!-- root node -->
            <feature>
              <rects>
                <_>
                  14 19 3 1 -1.</_>
                <_>
                  15 19 1 1 3.</_></rects>
              <tilted>0</tilted></feature>
            <threshold>7.0945947663858533e-004</threshold>
            <left_val>0.0347870998084545</left_val>
            <right_val>-0.5256618261337280</right_val></_></_>
        <_>
          <!-- tree 22 -->
          <_>
            <!-- root node -->
            <feature>
              <rects>
                <_>
                  7 19 3 1 -1.</_>
                <_>
                  8 19 1 1 3.</_></rects>
              <tilted>0</tilted></feature>
            <threshold>-3.0192811391316354e-004</threshold>
            <left_val>-0.4292685091495514</left_val>
            <right_val>0.1008953005075455</right_val></_></_>
        <_>
          <!-- tree 23 -->
          <_>
            <!-- root node -->
            <feature>
              <rects>
                <_>
                  0 14 24 3 -1.</_>
                <_>
                  0 15 24 1 3.</_></rects>
              <tilted>0</tilted></feature>
            <threshold>-8.1476885825395584e-003</threshold>
            <left_val>-0.6715260744094849</left_val>
            <right_val>0.0586054101586342</right_val></_></_>
        <_>
          <!-- tree 24 -->
          <_>
            <!-- root node -->
            <feature>
              <rects>
                <_>
                  7 7 8 6 -1.</_>
                <_>
                  7 9 8 2 3.</_></rects>
              <tilted>0</tilted></feature>
            <threshold>6.4342338591814041e-003</threshold>
            <left_val>-0.1398869007825851</left_val>
            <right_val>0.3224222958087921</right_val></_></_>
        <_>
          <!-- tree 25 -->
          <_>
            <!-- root node -->
            <feature>
              <rects>
                <_>
                  11 11 2 8 -1.</_>
                <_>
                  11 13 2 4 2.</_></rects>
              <tilted>0</tilted></feature>
            <threshold>5.0374388229101896e-004</threshold>
            <left_val>-0.2394762933254242</left_val>
            <right_val>0.1854721009731293</right_val></_></_>
        <_>
          <!-- tree 26 -->
          <_>
            <!-- root node -->
            <feature>
              <rects>
                <_>
                  5 14 7 3 -1.</_>
                <_>
                  4 15 7 1 3.</_></rects>
              <tilted>1</tilted></feature>
            <threshold>3.7683930713683367e-003</threshold>
            <left_val>-0.1244141012430191</left_val>
            <right_val>0.3543547093868256</right_val></_></_>
        <_>
          <!-- tree 27 -->
          <_>
            <!-- root node -->
            <feature>
              <rects>
                <_>
                  10 20 6 4 -1.</_>
                <_>
                  12 20 2 4 3.</_></rects>
              <tilted>0</tilted></feature>
            <threshold>-6.9259009324014187e-003</threshold>
            <left_val>-0.4436028003692627</left_val>
            <right_val>0.0615925006568432</right_val></_></_>
        <_>
          <!-- tree 28 -->
          <_>
            <!-- root node -->
            <feature>
              <rects>
                <_>
                  7 1 4 3 -1.</_>
                <_>
                  6 2 4 1 3.</_></rects>
              <tilted>1</tilted></feature>
            <threshold>-2.6072529144585133e-003</threshold>
            <left_val>-0.4623712003231049</left_val>
            <right_val>0.0875229313969612</right_val></_></_>
        <_>
          <!-- tree 29 -->
          <_>
            <!-- root node -->
            <feature>
              <rects>
                <_>
                  10 22 4 2 -1.</_>
                <_>
                  10 23 4 1 2.</_></rects>
              <tilted>0</tilted></feature>
            <threshold>1.1061850236728787e-003</threshold>
            <left_val>-0.1373755931854248</left_val>
            <right_val>0.3040471971035004</right_val></_></_>
        <_>
          <!-- tree 30 -->
          <_>
            <!-- root node -->
            <feature>
              <rects>
                <_>
                  11 16 2 3 -1.</_>
                <_>
                  11 17 2 1 3.</_></rects>
              <tilted>0</tilted></feature>
            <threshold>-2.7079551364295185e-004</threshold>
            <left_val>-0.4000372886657715</left_val>
            <right_val>0.1246253028512001</right_val></_></_>
        <_>
          <!-- tree 31 -->
          <_>
            <!-- root node -->
            <feature>
              <rects>
                <_>
                  17 16 3 4 -1.</_>
                <_>
                  16 17 3 2 2.</_></rects>
              <tilted>1</tilted></feature>
            <threshold>4.3425029143691063e-003</threshold>
            <left_val>0.0681511312723160</left_val>
            <right_val>-0.3669756054878235</right_val></_></_>
        <_>
          <!-- tree 32 -->
          <_>
            <!-- root node -->
            <feature>
              <rects>
                <_>
                  7 16 4 3 -1.</_>
                <_>
                  8 17 2 3 2.</_></rects>
              <tilted>1</tilted></feature>
            <threshold>7.2513432241976261e-003</threshold>
            <left_val>0.0555370412766933</left_val>
            <right_val>-0.6825357079505920</right_val></_></_>
        <_>
          <!-- tree 33 -->
          <_>
            <!-- root node -->
            <feature>
              <rects>
                <_>
                  10 7 4 1 -1.</_>
                <_>
                  11 7 2 1 2.</_></rects>
              <tilted>0</tilted></feature>
            <threshold>-1.2948679795954376e-004</threshold>
            <left_val>-0.3136019110679627</left_val>
            <right_val>0.1249812990427017</right_val></_></_>
        <_>
          <!-- tree 34 -->
          <_>
            <!-- root node -->
            <feature>
              <rects>
                <_>
                  11 7 2 13 -1.</_>
                <_>
                  12 7 1 13 2.</_></rects>
              <tilted>0</tilted></feature>
            <threshold>-2.5767439510673285e-003</threshold>
            <left_val>0.3842940032482147</left_val>
            <right_val>-0.1125549972057343</right_val></_></_></trees>
      <stage_threshold>-1.3253220319747925</stage_threshold>
      <parent>0</parent>
      <next>-1</next></_>
    <_>
      <!-- stage 2 -->
      <trees>
        <_>
          <!-- tree 0 -->
          <_>
            <!-- root node -->
            <feature>
              <rects>
                <_>
                  11 19 2 2 -1.</_>
                <_>
                  11 20 2 1 2.</_></rects>
              <tilted>0</tilted></feature>
            <threshold>-3.7544340011663735e-004</threshold>
            <left_val>0.3225457072257996</left_val>
            <right_val>-0.4185720086097717</right_val></_></_>
        <_>
          <!-- tree 1 -->
          <_>
            <!-- root node -->
            <feature>
              <rects>
                <_>
                  17 5 1 4 -1.</_>
                <_>
                  17 5 1 2 2.</_></rects>
              <tilted>1</tilted></feature>
            <threshold>-5.6419789325445890e-004</threshold>
            <left_val>0.1661528944969177</left_val>
            <right_val>-0.1802425980567932</right_val></_></_>
        <_>
          <!-- tree 2 -->
          <_>
            <!-- root node -->
            <feature>
              <rects>
                <_>
                  3 11 4 1 -1.</_>
                <_>
                  5 11 2 1 2.</_></rects>
              <tilted>0</tilted></feature>
            <threshold>5.5050058290362358e-004</threshold>
            <left_val>-0.2830458879470825</left_val>
            <right_val>0.2909142971038818</right_val></_></_>
        <_>
          <!-- tree 3 -->
          <_>
            <!-- root node -->
            <feature>
              <rects>
                <_>
                  5 4 19 2 -1.</_>
                <_>
                  5 5 19 1 2.</_></rects>
              <tilted>0</tilted></feature>
            <threshold>1.1739269830286503e-003</threshold>
            <left_val>-0.1698759943246841</left_val>
            <right_val>0.1790640950202942</right_val></_></_>
        <_>
          <!-- tree 4 -->
          <_>
            <!-- root node -->
            <feature>
              <rects>
                <_>
                  6 17 3 1 -1.</_>
                <_>
                  7 18 1 1 3.</_></rects>
              <tilted>1</tilted></feature>
            <threshold>1.7628129571676254e-003</threshold>
            <left_val>0.0466793105006218</left_val>
            <right_val>-0.7155210971832275</right_val></_></_>
        <_>
          <!-- tree 5 -->
          <_>
            <!-- root node -->
            <feature>
              <rects>
                <_>
                  11 9 2 8 -1.</_>
                <_>
                  11 11 2 4 2.</_></rects>
              <tilted>0</tilted></feature>
            <threshold>8.5231818957254291e-004</threshold>
            <left_val>-0.2397330999374390</left_val>
            <right_val>0.2382324039936066</right_val></_></_>
        <_>
          <!-- tree 6 -->
          <_>
            <!-- root node -->
            <feature>
              <rects>
                <_>
                  10 18 3 2 -1.</_>
                <_>
                  11 18 1 2 3.</_></rects>
              <tilted>0</tilted></feature>
            <threshold>1.0497740004211664e-003</threshold>
            <left_val>0.0792341232299805</left_val>
            <right_val>-0.7116376161575317</right_val></_></_>
        <_>
          <!-- tree 7 -->
          <_>
            <!-- root node -->
            <feature>
              <rects>
                <_>
                  12 14 1 6 -1.</_>
                <_>
                  12 16 1 2 3.</_></rects>
              <tilted>0</tilted></feature>
            <threshold>2.5326068862341344e-004</threshold>
            <left_val>-0.2459419965744019</left_val>
            <right_val>0.1661857068538666</right_val></_></_>
        <_>
          <!-- tree 8 -->
          <_>
            <!-- root node -->
            <feature>
              <rects>
                <_>
                  8 0 8 4 -1.</_>
                <_>
                  8 2 8 2 2.</_></rects>
              <tilted>0</tilted></feature>
            <threshold>5.2005099132657051e-004</threshold>
            <left_val>-0.2358095943927765</left_val>
            <right_val>0.2236886024475098</right_val></_></_>
        <_>
          <!-- tree 9 -->
          <_>
            <!-- root node -->
            <feature>
              <rects>
                <_>
                  15 4 4 1 -1.</_>
                <_>
                  16 5 2 1 2.</_></rects>
              <tilted>1</tilted></feature>
            <threshold>-8.5925281746312976e-004</threshold>
            <left_val>-0.4598860144615173</left_val>
            <right_val>0.0913202166557312</right_val></_></_>
        <_>
          <!-- tree 10 -->
          <_>
            <!-- root node -->
            <feature>
              <rects>
                <_>
                  9 4 1 4 -1.</_>
                <_>
                  8 5 1 2 2.</_></rects>
              <tilted>1</tilted></feature>
            <threshold>1.7210879595950246e-003</threshold>
            <left_val>0.0929733067750931</left_val>
            <right_val>-0.5555936098098755</right_val></_></_>
        <_>
          <!-- tree 11 -->
          <_>
            <!-- root node -->
            <feature>
              <rects>
                <_>
                  10 19 5 4 -1.</_>
                <_>
                  10 20 5 2 2.</_></rects>
              <tilted>0</tilted></feature>
            <threshold>5.2692258032038808e-004</threshold>
            <left_val>-0.1575042009353638</left_val>
            <right_val>0.2763679027557373</right_val></_></_>
        <_>
          <!-- tree 12 -->
          <_>
            <!-- root node -->
            <feature>
              <rects>
                <_>
                  9 22 6 2 -1.</_>
                <_>
                  9 23 6 1 2.</_></rects>
              <tilted>0</tilted></feature>
            <threshold>1.2136970181018114e-003</threshold>
            <left_val>-0.1669476926326752</left_val>
            <right_val>0.3153668940067291</right_val></_></_>
        <_>
          <!-- tree 13 -->
          <_>
            <!-- root node -->
            <feature>
              <rects>
                <_>
                  15 17 2 3 -1.</_>
                <_>
                  14 18 2 1 3.</_></rects>
              <tilted>1</tilted></feature>
            <threshold>3.0960750300437212e-003</threshold>
            <left_val>0.0573940090835094</left_val>
            <right_val>-0.4568971097469330</right_val></_></_>
        <_>
          <!-- tree 14 -->
          <_>
            <!-- root node -->
            <feature>
              <rects>
                <_>
                  8 2 3 21 -1.</_>
                <_>
                  9 2 1 21 3.</_></rects>
              <tilted>0</tilted></feature>
            <threshold>7.5318538583815098e-003</threshold>
            <left_val>0.0599465891718864</left_val>
            <right_val>-0.7297989726066589</right_val></_></_>
        <_>
          <!-- tree 15 -->
          <_>
            <!-- root node -->
            <feature>
              <rects>
                <_>
                  15 5 2 2 -1.</_>
                <_>
                  15 5 2 1 2.</_></rects>
              <tilted>1</tilted></feature>
            <threshold>-5.7015889324247837e-003</threshold>
            <left_val>-0.3182798027992249</left_val>
            <right_val>7.9106306657195091e-003</right_val></_></_>
        <_>
          <!-- tree 16 -->
          <_>
            <!-- root node -->
            <feature>
              <rects>
                <_>
                  9 5 2 2 -1.</_>
                <_>
                  9 5 1 2 2.</_></rects>
              <tilted>1</tilted></feature>
            <threshold>-1.6325060278177261e-004</threshold>
            <left_val>0.2118434011936188</left_val>
            <right_val>-0.2280942052602768</right_val></_></_>
        <_>
          <!-- tree 17 -->
          <_>
            <!-- root node -->
            <feature>
              <rects>
                <_>
                  18 16 1 3 -1.</_>
                <_>
                  17 17 1 1 3.</_></rects>
              <tilted>1</tilted></feature>
            <threshold>1.3507759431377053e-003</threshold>
            <left_val>0.0734102129936218</left_val>
            <right_val>-0.5466465950012207</right_val></_></_>
        <_>
          <!-- tree 18 -->
          <_>
            <!-- root node -->
            <feature>
              <rects>
                <_>
                  5 11 3 8 -1.</_>
                <_>
                  5 13 3 4 2.</_></rects>
              <tilted>0</tilted></feature>
            <threshold>1.2574299471452832e-003</threshold>
            <left_val>-0.2100113928318024</left_val>
            <right_val>0.2120307981967926</right_val></_></_>
        <_>
          <!-- tree 19 -->
          <_>
            <!-- root node -->
            <feature>
              <rects>
                <_>
                  18 16 1 3 -1.</_>
                <_>
                  17 17 1 1 3.</_></rects>
              <tilted>1</tilted></feature>
            <threshold>-2.2809029906056821e-004</threshold>
            <left_val>-0.2827008068561554</left_val>
            <right_val>0.1080761998891830</right_val></_></_>
        <_>
          <!-- tree 20 -->
          <_>
            <!-- root node -->
            <feature>
              <rects>
                <_>
                  6 16 3 1 -1.</_>
                <_>
                  7 17 1 1 3.</_></rects>
              <tilted>1</tilted></feature>
            <threshold>-6.7830027546733618e-004</threshold>
            <left_val>-0.5425779819488525</left_val>
            <right_val>0.0825429409742355</right_val></_></_>
        <_>
          <!-- tree 21 -->
          <_>
            <!-- root node -->
            <feature>
              <rects>
                <_>
                  6 13 16 3 -1.</_>
                <_>
                  10 13 8 3 2.</_></rects>
              <tilted>0</tilted></feature>
            <threshold>-0.0360394716262817</threshold>
            <left_val>0.4256632030010223</left_val>
            <right_val>-0.0351854413747787</right_val></_></_>
        <_>
          <!-- tree 22 -->
          <_>
            <!-- root node -->
            <feature>
              <rects>
                <_>
                  8 15 4 2 -1.</_>
                <_>
                  10 15 2 2 2.</_></rects>
              <tilted>0</tilted></feature>
            <threshold>1.2238729977980256e-003</threshold>
            <left_val>-0.1471644937992096</left_val>
            <right_val>0.3075939118862152</right_val></_></_>
        <_>
          <!-- tree 23 -->
          <_>
            <!-- root node -->
            <feature>
              <rects>
                <_>
                  16 14 5 3 -1.</_>
                <_>
                  16 15 5 1 3.</_></rects>
              <tilted>0</tilted></feature>
            <threshold>-2.9313629493117332e-003</threshold>
            <left_val>-0.6791411042213440</left_val>
            <right_val>0.0448031798005104</right_val></_></_>
        <_>
          <!-- tree 24 -->
          <_>
            <!-- root node -->
            <feature>
              <rects>
                <_>
                  7 18 3 1 -1.</_>
                <_>
                  8 19 1 1 3.</_></rects>
              <tilted>1</tilted></feature>
            <threshold>-1.9332689698785543e-003</threshold>
            <left_val>-0.7307865023612976</left_val>
            <right_val>0.0554593503475189</right_val></_></_>
        <_>
          <!-- tree 25 -->
          <_>
            <!-- root node -->
            <feature>
              <rects>
                <_>
                  16 8 8 4 -1.</_>
                <_>
                  16 9 8 2 2.</_></rects>
              <tilted>0</tilted></feature>
            <threshold>-3.9072930812835693e-003</threshold>
            <left_val>-0.4729511141777039</left_val>
            <right_val>0.0409874506294727</right_val></_></_>
        <_>
          <!-- tree 26 -->
          <_>
            <!-- root node -->
            <feature>
              <rects>
                <_>
                  0 8 8 4 -1.</_>
                <_>
                  0 9 8 2 2.</_></rects>
              <tilted>0</tilted></feature>
            <threshold>7.7322940342128277e-003</threshold>
            <left_val>0.0466310009360313</left_val>
            <right_val>-0.8543400168418884</right_val></_></_>
        <_>
          <!-- tree 27 -->
          <_>
            <!-- root node -->
            <feature>
              <rects>
                <_>
                  17 18 1 3 -1.</_>
                <_>
                  16 19 1 1 3.</_></rects>
              <tilted>1</tilted></feature>
            <threshold>-1.3954400492366403e-004</threshold>
            <left_val>-0.1538928002119064</left_val>
            <right_val>0.0776759684085846</right_val></_></_>
        <_>
          <!-- tree 28 -->
          <_>
            <!-- root node -->
            <feature>
              <rects>
                <_>
                  7 18 3 1 -1.</_>
                <_>
                  8 19 1 1 3.</_></rects>
              <tilted>1</tilted></feature>
            <threshold>1.4951940393075347e-003</threshold>
            <left_val>0.0677183270454407</left_val>
            <right_val>-0.6075195074081421</right_val></_></_>
        <_>
          <!-- tree 29 -->
          <_>
            <!-- root node -->
            <feature>
              <rects>
                <_>
                  18 14 4 6 -1.</_>
                <_>
                  19 15 2 6 2.</_></rects>
              <tilted>1</tilted></feature>
            <threshold>0.0122722797095776</threshold>
            <left_val>-0.0403586402535439</left_val>
            <right_val>0.3340075910091400</right_val></_></_>
        <_>
          <!-- tree 30 -->
          <_>
            <!-- root node -->
            <feature>
              <rects>
                <_>
                  6 14 6 4 -1.</_>
                <_>
                  5 15 6 2 2.</_></rects>
              <tilted>1</tilted></feature>
            <threshold>0.0103488303720951</threshold>
            <left_val>-0.0864537432789803</left_val>
            <right_val>0.5135759115219116</right_val></_></_>
        <_>
          <!-- tree 31 -->
          <_>
            <!-- root node -->
            <feature>
              <rects>
                <_>
                  21 16 2 6 -1.</_>
                <_>
                  21 16 1 6 2.</_></rects>
              <tilted>1</tilted></feature>
            <threshold>-0.0212738402187824</threshold>
            <left_val>0.6743888854980469</left_val>
            <right_val>-8.9362235739827156e-003</right_val></_></_>
        <_>
          <!-- tree 32 -->
          <_>
            <!-- root node -->
            <feature>
              <rects>
                <_>
                  5 15 3 9 -1.</_>
                <_>
                  5 18 3 3 3.</_></rects>
              <tilted>0</tilted></feature>
            <threshold>-4.1304412297904491e-003</threshold>
            <left_val>0.3154073953628540</left_val>
            <right_val>-0.1397777050733566</right_val></_></_>
        <_>
          <!-- tree 33 -->
          <_>
            <!-- root node -->
            <feature>
              <rects>
                <_>
                  20 14 3 3 -1.</_>
                <_>
                  20 15 3 1 3.</_></rects>
              <tilted>0</tilted></feature>
            <threshold>1.6025210497900844e-003</threshold>
            <left_val>0.0700650811195374</left_val>
            <right_val>-0.6261339783668518</right_val></_></_>
        <_>
          <!-- tree 34 -->
          <_>
            <!-- root node -->
            <feature>
              <rects>
                <_>
                  0 15 3 3 -1.</_>
                <_>
                  0 16 3 1 3.</_></rects>
              <tilted>0</tilted></feature>
            <threshold>1.2923059985041618e-003</threshold>
            <left_val>0.0696515664458275</left_val>
            <right_val>-0.6024177074432373</right_val></_></_>
        <_>
          <!-- tree 35 -->
          <_>
            <!-- root node -->
            <feature>
              <rects>
                <_>
                  13 3 6 12 -1.</_>
                <_>
                  15 5 2 12 3.</_></rects>
              <tilted>1</tilted></feature>
            <threshold>-0.0400091186165810</threshold>
            <left_val>0.4452851116657257</left_val>
            <right_val>-0.0588546693325043</right_val></_></_>
        <_>
          <!-- tree 36 -->
          <_>
            <!-- root node -->
            <feature>
              <rects>
                <_>
                  8 7 6 9 -1.</_>
                <_>
                  10 10 2 3 9.</_></rects>
              <tilted>0</tilted></feature>
            <threshold>5.9011690318584442e-003</threshold>
            <left_val>-0.1978697031736374</left_val>
            <right_val>0.1998852044343948</right_val></_></_>
        <_>
          <!-- tree 37 -->
          <_>
            <!-- root node -->
            <feature>
              <rects>
                <_>
                  13 3 6 12 -1.</_>
                <_>
                  15 5 2 12 3.</_></rects>
              <tilted>1</tilted></feature>
            <threshold>-6.5050357952713966e-003</threshold>
            <left_val>0.1231357008218765</left_val>
            <right_val>-0.0489946492016315</right_val></_></_>
        <_>
          <!-- tree 38 -->
          <_>
            <!-- root node -->
            <feature>
              <rects>
                <_>
                  11 3 12 6 -1.</_>
                <_>
                  9 5 12 2 3.</_></rects>
              <tilted>1</tilted></feature>
            <threshold>-0.0405735187232494</threshold>
            <left_val>0.6108725070953369</left_val>
            <right_val>-0.0750862136483192</right_val></_></_></trees>
      <stage_threshold>-1.2851079702377319</stage_threshold>
      <parent>1</parent>
      <next>-1</next></_>
    <_>
      <!-- stage 3 -->
      <trees>
        <_>
          <!-- tree 0 -->
          <_>
            <!-- root node -->
            <feature>
              <rects>
                <_>
                  11 20 2 2 -1.</_>
                <_>
                  11 21 2 1 2.</_></rects>
              <tilted>0</tilted></feature>
            <threshold>-6.6317798336967826e-004</threshold>
            <left_val>0.3241429030895233</left_val>
            <right_val>-0.2783639132976532</right_val></_></_>
        <_>
          <!-- tree 1 -->
          <_>
            <!-- root node -->
            <feature>
              <rects>
                <_>
                  4 2 16 20 -1.</_>
                <_>
                  4 7 16 10 2.</_></rects>
              <tilted>0</tilted></feature>
            <threshold>0.1052137985825539</threshold>
            <left_val>-0.2249719947576523</left_val>
            <right_val>0.2577934861183167</right_val></_></_>
        <_>
          <!-- tree 2 -->
          <_>
            <!-- root node -->
            <feature>
              <rects>
                <_>
                  4 15 2 2 -1.</_>
                <_>
                  5 15 1 2 2.</_></rects>
              <tilted>0</tilted></feature>
            <threshold>6.1256770277395844e-004</threshold>
            <left_val>-0.1559541970491409</left_val>
            <right_val>0.2901337146759033</right_val></_></_>
        <_>
          <!-- tree 3 -->
          <_>
            <!-- root node -->
            <feature>
              <rects>
                <_>
                  10 19 4 3 -1.</_>
                <_>
                  11 19 2 3 2.</_></rects>
              <tilted>0</tilted></feature>
            <threshold>1.8428410403430462e-003</threshold>
            <left_val>0.0184724498540163</left_val>
            <right_val>-0.7289735078811646</right_val></_></_>
        <_>
          <!-- tree 4 -->
          <_>
            <!-- root node -->
            <feature>
              <rects>
                <_>
                  10 19 3 4 -1.</_>
                <_>
                  11 19 1 4 3.</_></rects>
              <tilted>0</tilted></feature>
            <threshold>-1.4565669698640704e-003</threshold>
            <left_val>-0.5709925889968872</left_val>
            <right_val>0.0680402517318726</right_val></_></_>
        <_>
          <!-- tree 5 -->
          <_>
            <!-- root node -->
            <feature>
              <rects>
                <_>
                  10 5 6 3 -1.</_>
                <_>
                  12 6 2 1 9.</_></rects>
              <tilted>0</tilted></feature>
            <threshold>0.0116404499858618</threshold>
            <left_val>0.0439222604036331</left_val>
            <right_val>-0.5907387733459473</right_val></_></_>
        <_>
          <!-- tree 6 -->
          <_>
            <!-- root node -->
            <feature>
              <rects>
                <_>
                  12 4 3 1 -1.</_>
                <_>
                  13 5 1 1 3.</_></rects>
              <tilted>1</tilted></feature>
            <threshold>-7.1586749982088804e-004</threshold>
            <left_val>-0.4344250857830048</left_val>
            <right_val>0.0908875465393066</right_val></_></_>
        <_>
          <!-- tree 7 -->
          <_>
            <!-- root node -->
            <feature>
              <rects>
                <_>
                  19 16 1 3 -1.</_>
                <_>
                  18 17 1 1 3.</_></rects>
              <tilted>1</tilted></feature>
            <threshold>-3.8489518919959664e-004</threshold>
            <left_val>-0.3566862046718597</left_val>
            <right_val>0.0872044488787651</right_val></_></_>
        <_>
          <!-- tree 8 -->
          <_>
            <!-- root node -->
            <feature>
              <rects>
                <_>
                  4 22 16 2 -1.</_>
                <_>
                  4 23 16 1 2.</_></rects>
              <tilted>0</tilted></feature>
            <threshold>2.7375828940421343e-003</threshold>
            <left_val>-0.1359125971794128</left_val>
            <right_val>0.2738440930843353</right_val></_></_>
        <_>
          <!-- tree 9 -->
          <_>
            <!-- root node -->
            <feature>
              <rects>
                <_>
                  19 16 1 3 -1.</_>
                <_>
                  18 17 1 1 3.</_></rects>
              <tilted>1</tilted></feature>
            <threshold>1.3048939872533083e-003</threshold>
            <left_val>0.0620254799723625</left_val>
            <right_val>-0.4952034950256348</right_val></_></_>
        <_>
          <!-- tree 10 -->
          <_>
            <!-- root node -->
            <feature>
              <rects>
                <_>
                  6 15 5 4 -1.</_>
                <_>
                  5 16 5 2 2.</_></rects>
              <tilted>1</tilted></feature>
            <threshold>0.0139888897538185</threshold>
            <left_val>-0.0667650774121284</left_val>
            <right_val>0.6465960144996643</right_val></_></_>
        <_>
          <!-- tree 11 -->
          <_>
            <!-- root node -->
            <feature>
              <rects>
                <_>
                  17 17 4 3 -1.</_>
                <_>
                  16 18 4 1 3.</_></rects>
              <tilted>1</tilted></feature>
            <threshold>2.0669889636337757e-003</threshold>
            <left_val>0.0788122564554214</left_val>
            <right_val>-0.2110117971897125</right_val></_></_>
        <_>
          <!-- tree 12 -->
          <_>
            <!-- root node -->
            <feature>
              <rects>
                <_>
                  9 13 3 6 -1.</_>
                <_>
                  9 15 3 2 3.</_></rects>
              <tilted>0</tilted></feature>
            <threshold>3.2385639497078955e-004</threshold>
            <left_val>-0.2629322111606598</left_val>
            <right_val>0.1505250930786133</right_val></_></_>
        <_>
          <!-- tree 13 -->
          <_>
            <!-- root node -->
            <feature>
              <rects>
                <_>
                  17 17 4 3 -1.</_>
                <_>
                  16 18 4 1 3.</_></rects>
              <tilted>1</tilted></feature>
            <threshold>-1.2100050225853920e-003</threshold>
            <left_val>-0.1903579980134964</left_val>
            <right_val>0.0690146386623383</right_val></_></_>
        <_>
          <!-- tree 14 -->
          <_>
            <!-- root node -->
            <feature>
              <rects>
                <_>
                  7 17 3 4 -1.</_>
                <_>
                  8 18 1 4 3.</_></rects>
              <tilted>1</tilted></feature>
            <threshold>-2.9059969820082188e-003</threshold>
            <left_val>-0.5276160836219788</left_val>
            <right_val>0.0773437321186066</right_val></_></_>
        <_>
          <!-- tree 15 -->
          <_>
            <!-- root node -->
            <feature>
              <rects>
                <_>
                  18 11 6 4 -1.</_>
                <_>
                  18 11 6 2 2.</_></rects>
              <tilted>1</tilted></feature>
            <threshold>-0.0100751398131251</threshold>
            <left_val>0.1292165964841843</left_val>
            <right_val>-0.0686490684747696</right_val></_></_>
        <_>
          <!-- tree 16 -->
          <_>
            <!-- root node -->
            <feature>
              <rects>
                <_>
                  6 11 4 6 -1.</_>
                <_>
                  6 11 2 6 2.</_></rects>
              <tilted>1</tilted></feature>
            <threshold>-0.0397828817367554</threshold>
            <left_val>-0.6701231002807617</left_val>
            <right_val>0.0533505789935589</right_val></_></_>
        <_>
          <!-- tree 17 -->
          <_>
            <!-- root node -->
            <feature>
              <rects>
                <_>
                  20 3 4 21 -1.</_>
                <_>
                  20 10 4 7 3.</_></rects>
              <tilted>0</tilted></feature>
            <threshold>0.1163861975073814</threshold>
            <left_val>0.0186125393956900</left_val>
            <right_val>-0.2625840008258820</right_val></_></_>
        <_>
          <!-- tree 18 -->
          <_>
            <!-- root node -->
            <feature>
              <rects>
                <_>
                  0 3 4 21 -1.</_>
                <_>
                  0 10 4 7 3.</_></rects>
              <tilted>0</tilted></feature>
            <threshold>0.0957563966512680</threshold>
            <left_val>0.0657448172569275</left_val>
            <right_val>-0.5625634193420410</right_val></_></_>
        <_>
          <!-- tree 19 -->
          <_>
            <!-- root node -->
            <feature>
              <rects>
                <_>
                  13 7 6 10 -1.</_>
                <_>
                  15 9 2 10 3.</_></rects>
              <tilted>1</tilted></feature>
            <threshold>-0.0285496804863214</threshold>
            <left_val>0.3550536036491394</left_val>
            <right_val>-0.0581712909042835</right_val></_></_>
        <_>
          <!-- tree 20 -->
          <_>
            <!-- root node -->
            <feature>
              <rects>
                <_>
                  1 5 20 18 -1.</_>
                <_>
                  1 5 10 9 2.</_>
                <_>
                  11 14 10 9 2.</_></rects>
              <tilted>0</tilted></feature>
            <threshold>0.1462330967187882</threshold>
            <left_val>0.0830699726939201</left_val>
            <right_val>-0.5184940099716187</right_val></_></_>
        <_>
          <!-- tree 21 -->
          <_>
            <!-- root node -->
            <feature>
              <rects>
                <_>
                  17 10 6 3 -1.</_>
                <_>
                  17 11 6 1 3.</_></rects>
              <tilted>0</tilted></feature>
            <threshold>-2.7191611006855965e-003</threshold>
            <left_val>-0.5483850240707398</left_val>
            <right_val>0.0391478203237057</right_val></_></_>
        <_>
          <!-- tree 22 -->
          <_>
            <!-- root node -->
            <feature>
              <rects>
                <_>
                  8 8 6 9 -1.</_>
                <_>
                  10 11 2 3 9.</_></rects>
              <tilted>0</tilted></feature>
            <threshold>7.0730177685618401e-003</threshold>
            <left_val>-0.1980106979608536</left_val>
            <right_val>0.1633168011903763</right_val></_></_>
        <_>
          <!-- tree 23 -->
          <_>
            <!-- root node -->
            <feature>
              <rects>
                <_>
                  13 11 9 4 -1.</_>
                <_>
                  16 14 3 4 3.</_></rects>
              <tilted>1</tilted></feature>
            <threshold>0.0668702870607376</threshold>
            <left_val>-0.0530669987201691</left_val>
            <right_val>0.4921678006649017</right_val></_></_>
        <_>
          <!-- tree 24 -->
          <_>
            <!-- root node -->
            <feature>
              <rects>
                <_>
                  7 2 2 3 -1.</_>
                <_>
                  6 3 2 1 3.</_></rects>
              <tilted>1</tilted></feature>
            <threshold>-7.3181767947971821e-004</threshold>
            <left_val>-0.3474611043930054</left_val>
            <right_val>0.1095366030931473</right_val></_></_>
        <_>
          <!-- tree 25 -->
          <_>
            <!-- root node -->
            <feature>
              <rects>
                <_>
                  13 11 9 4 -1.</_>
                <_>
                  16 14 3 4 3.</_></rects>
              <tilted>1</tilted></feature>
            <threshold>0.0133070098236203</threshold>
            <left_val>-0.0810403674840927</left_val>
            <right_val>0.0916645675897598</right_val></_></_>
        <_>
          <!-- tree 26 -->
          <_>
            <!-- root node -->
            <feature>
              <rects>
                <_>
                  11 7 10 6 -1.</_>
                <_>
                  9 9 10 2 3.</_></rects>
              <tilted>1</tilted></feature>
            <threshold>-0.0263902898877859</threshold>
            <left_val>0.5159279704093933</left_val>
            <right_val>-0.0688896030187607</right_val></_></_>
        <_>
          <!-- tree 27 -->
          <_>
            <!-- root node -->
            <feature>
              <rects>
                <_>
                  17 9 5 3 -1.</_>
                <_>
                  17 10 5 1 3.</_></rects>
              <tilted>0</tilted></feature>
            <threshold>3.5223409067839384e-003</threshold>
            <left_val>0.0334554910659790</left_val>
            <right_val>-0.4739440977573395</right_val></_></_>
        <_>
          <!-- tree 28 -->
          <_>
            <!-- root node -->
            <feature>
              <rects>
                <_>
                  2 9 5 3 -1.</_>
                <_>
                  2 10 5 1 3.</_></rects>
              <tilted>0</tilted></feature>
            <threshold>-1.6792670357972383e-003</threshold>
            <left_val>-0.5011383295059204</left_val>
            <right_val>0.0648057162761688</right_val></_></_>
        <_>
          <!-- tree 29 -->
          <_>
            <!-- root node -->
            <feature>
              <rects>
                <_>
                  12 7 2 6 -1.</_>
                <_>
                  12 7 1 6 2.</_></rects>
              <tilted>1</tilted></feature>
            <threshold>-0.0155602497979999</threshold>
            <left_val>0.4168047010898590</left_val>
            <right_val>-0.0186766702681780</right_val></_></_>
        <_>
          <!-- tree 30 -->
          <_>
            <!-- root node -->
            <feature>
              <rects>
                <_>
                  9 4 2 4 -1.</_>
                <_>
                  9 6 2 2 2.</_></rects>
              <tilted>0</tilted></feature>
            <threshold>3.0622250051237643e-005</threshold>
            <left_val>-0.2175655961036682</left_val>
            <right_val>0.1483906954526901</right_val></_></_>
        <_>
          <!-- tree 31 -->
          <_>
            <!-- root node -->
            <feature>
              <rects>
                <_>
                  15 1 3 2 -1.</_>
                <_>
                  16 2 1 2 3.</_></rects>
              <tilted>1</tilted></feature>
            <threshold>-3.2889971043914557e-003</threshold>
            <left_val>-0.3305827975273132</left_val>
            <right_val>0.0381041690707207</right_val></_></_>
        <_>
          <!-- tree 32 -->
          <_>
            <!-- root node -->
            <feature>
              <rects>
                <_>
                  9 0 4 8 -1.</_>
                <_>
                  10 1 2 8 2.</_></rects>
              <tilted>1</tilted></feature>
            <threshold>0.0271678008139133</threshold>
            <left_val>-0.0435015484690666</left_val>
            <right_val>0.8005400896072388</right_val></_></_>
        <_>
          <!-- tree 33 -->
          <_>
            <!-- root node -->
            <feature>
              <rects>
                <_>
                  17 10 6 3 -1.</_>
                <_>
                  17 11 6 1 3.</_></rects>
              <tilted>0</tilted></feature>
            <threshold>1.9996010232716799e-003</threshold>
            <left_val>0.0685015022754669</left_val>
            <right_val>-0.3768934011459351</right_val></_></_>
        <_>
          <!-- tree 34 -->
          <_>
            <!-- root node -->
            <feature>
              <rects>
                <_>
                  0 12 5 3 -1.</_>
                <_>
                  0 13 5 1 3.</_></rects>
              <tilted>0</tilted></feature>
            <threshold>3.6431839689612389e-003</threshold>
            <left_val>0.0354688987135887</left_val>
            <right_val>-0.7489212751388550</right_val></_></_>
        <_>
          <!-- tree 35 -->
          <_>
            <!-- root node -->
            <feature>
              <rects>
                <_>
                  22 10 2 4 -1.</_>
                <_>
                  22 10 1 4 2.</_></rects>
              <tilted>0</tilted></feature>
            <threshold>3.5670739598572254e-003</threshold>
            <left_val>-0.0840334296226501</left_val>
            <right_val>0.5564733743667603</right_val></_></_>
        <_>
          <!-- tree 36 -->
          <_>
            <!-- root node -->
            <feature>
              <rects>
                <_>
                  12 10 6 1 -1.</_>
                <_>
                  14 12 2 1 3.</_></rects>
              <tilted>1</tilted></feature>
            <threshold>4.7478600754402578e-004</threshold>
            <left_val>-0.1937285959720612</left_val>
            <right_val>0.1588266938924789</right_val></_></_>
        <_>
          <!-- tree 37 -->
          <_>
            <!-- root node -->
            <feature>
              <rects>
                <_>
                  3 1 18 13 -1.</_>
                <_>
                  3 1 9 13 2.</_></rects>
              <tilted>0</tilted></feature>
            <threshold>0.1762955039739609</threshold>
            <left_val>-0.0923898667097092</left_val>
            <right_val>0.3810837864875794</right_val></_></_>
        <_>
          <!-- tree 38 -->
          <_>
            <!-- root node -->
            <feature>
              <rects>
                <_>
                  0 10 2 4 -1.</_>
                <_>
                  1 10 1 4 2.</_></rects>
              <tilted>0</tilted></feature>
            <threshold>-1.2901159934699535e-003</threshold>
            <left_val>0.3170445859432221</left_val>
            <right_val>-0.1063133031129837</right_val></_></_>
        <_>
          <!-- tree 39 -->
          <_>
            <!-- root node -->
            <feature>
              <rects>
                <_>
                  15 9 9 6 -1.</_>
                <_>
                  18 12 3 6 3.</_></rects>
              <tilted>1</tilted></feature>
            <threshold>0.0880765765905380</threshold>
            <left_val>-0.0242341905832291</left_val>
            <right_val>0.2670181989669800</right_val></_></_>
        <_>
          <!-- tree 40 -->
          <_>
            <!-- root node -->
            <feature>
              <rects>
                <_>
                  5 18 3 1 -1.</_>
                <_>
                  6 19 1 1 3.</_></rects>
              <tilted>1</tilted></feature>
            <threshold>1.2735549826174974e-003</threshold>
            <left_val>0.0673505589365959</left_val>
            <right_val>-0.4564392864704132</right_val></_></_>
        <_>
          <!-- tree 41 -->
          <_>
            <!-- root node -->
            <feature>
              <rects>
                <_>
                  13 19 6 4 -1.</_>
                <_>
                  16 19 3 2 2.</_>
                <_>
                  13 21 3 2 2.</_></rects>
              <tilted>0</tilted></feature>
            <threshold>6.0451118042692542e-004</threshold>
            <left_val>-0.0671271532773972</left_val>
            <right_val>0.1025295034050942</right_val></_></_>
        <_>
          <!-- tree 42 -->
          <_>
            <!-- root node -->
            <feature>
              <rects>
                <_>
                  9 9 6 9 -1.</_>
                <_>
                  6 12 6 3 3.</_></rects>
              <tilted>1</tilted></feature>
            <threshold>0.1115415990352631</threshold>
            <left_val>-0.0469593591988087</left_val>
            <right_val>0.6851149797439575</right_val></_></_>
        <_>
          <!-- tree 43 -->
          <_>
            <!-- root node -->
            <feature>
              <rects>
                <_>
                  11 8 9 3 -1.</_>
                <_>
                  14 9 3 1 9.</_></rects>
              <tilted>0</tilted></feature>
            <threshold>0.0351150892674923</threshold>
            <left_val>0.0211311392486095</left_val>
            <right_val>-0.5745108127593994</right_val></_></_>
        <_>
          <!-- tree 44 -->
          <_>
            <!-- root node -->
            <feature>
              <rects>
                <_>
                  4 8 9 3 -1.</_>
                <_>
                  7 9 3 1 9.</_></rects>
              <tilted>0</tilted></feature>
            <threshold>3.8317180587910116e-004</threshold>
            <left_val>-0.2330653965473175</left_val>
            <right_val>0.1289885044097900</right_val></_></_>
        <_>
          <!-- tree 45 -->
          <_>
            <!-- root node -->
            <feature>
              <rects>
                <_>
                  16 19 2 3 -1.</_>
                <_>
                  15 20 2 1 3.</_></rects>
              <tilted>1</tilted></feature>
            <threshold>-5.1627041102619842e-005</threshold>
            <left_val>0.1035922989249229</left_val>
            <right_val>-0.0974394381046295</right_val></_></_>
        <_>
          <!-- tree 46 -->
          <_>
            <!-- root node -->
            <feature>
              <rects>
                <_>
                  9 10 2 1 -1.</_>
                <_>
                  9 10 1 1 2.</_></rects>
              <tilted>1</tilted></feature>
            <threshold>-1.8902050214819610e-004</threshold>
            <left_val>0.1823377013206482</left_val>
            <right_val>-0.1609386056661606</right_val></_></_>
        <_>
          <!-- tree 47 -->
          <_>
            <!-- root node -->
            <feature>
              <rects>
                <_>
                  5 8 15 6 -1.</_>
                <_>
                  5 11 15 3 2.</_></rects>
              <tilted>0</tilted></feature>
            <threshold>-0.0348724797368050</threshold>
            <left_val>0.3710702061653137</left_val>
            <right_val>-0.0644690170884132</right_val></_></_>
        <_>
          <!-- tree 48 -->
          <_>
            <!-- root node -->
            <feature>
              <rects>
                <_>
                  9 16 3 3 -1.</_>
                <_>
                  10 17 1 1 9.</_></rects>
              <tilted>0</tilted></feature>
            <threshold>2.5931850541383028e-003</threshold>
            <left_val>0.0651392489671707</left_val>
            <right_val>-0.4746383130550385</right_val></_></_>
        <_>
          <!-- tree 49 -->
          <_>
            <!-- root node -->
            <feature>
              <rects>
                <_>
                  14 18 2 2 -1.</_>
                <_>
                  14 19 2 1 2.</_></rects>
              <tilted>0</tilted></feature>
            <threshold>-2.8924268553964794e-004</threshold>
            <left_val>0.1023000031709671</left_val>
            <right_val>-0.1344597041606903</right_val></_></_>
        <_>
          <!-- tree 50 -->
          <_>
            <!-- root node -->
            <feature>
              <rects>
                <_>
                  12 0 12 2 -1.</_>
                <_>
                  12 0 12 1 2.</_></rects>
              <tilted>1</tilted></feature>
            <threshold>1.5321129467338324e-003</threshold>
            <left_val>0.1032235994935036</left_val>
            <right_val>-0.2869682013988495</right_val></_></_>
        <_>
          <!-- tree 51 -->
          <_>
            <!-- root node -->
            <feature>
              <rects>
                <_>
                  4 11 20 3 -1.</_>
                <_>
                  4 12 20 1 3.</_></rects>
              <tilted>0</tilted></feature>
            <threshold>7.1991640143096447e-003</threshold>
            <left_val>0.0443118885159492</left_val>
            <right_val>-0.5932793021202087</right_val></_></_>
        <_>
          <!-- tree 52 -->
          <_>
            <!-- root node -->
            <feature>
              <rects>
                <_>
                  2 10 20 4 -1.</_>
                <_>
                  2 11 20 2 2.</_></rects>
              <tilted>0</tilted></feature>
            <threshold>2.9221449512988329e-003</threshold>
            <left_val>-0.1219028979539871</left_val>
            <right_val>0.2626385092735291</right_val></_></_>
        <_>
          <!-- tree 53 -->
          <_>
            <!-- root node -->
            <feature>
              <rects>
                <_>
                  12 3 6 10 -1.</_>
                <_>
                  14 5 2 10 3.</_></rects>
              <tilted>1</tilted></feature>
            <threshold>-0.0371027998626232</threshold>
            <left_val>0.3395703136920929</left_val>
            <right_val>-0.0385919101536274</right_val></_></_>
        <_>
          <!-- tree 54 -->
          <_>
            <!-- root node -->
            <feature>
              <rects>
                <_>
                  0 6 24 3 -1.</_>
                <_>
                  0 7 24 1 3.</_></rects>
              <tilted>0</tilted></feature>
            <threshold>0.0116881197318435</threshold>
            <left_val>0.0385559983551502</left_val>
            <right_val>-0.8147308230400085</right_val></_></_>
        <_>
          <!-- tree 55 -->
          <_>
            <!-- root node -->
            <feature>
              <rects>
                <_>
                  12 17 2 3 -1.</_>
                <_>
                  11 18 2 1 3.</_></rects>
              <tilted>1</tilted></feature>
            <threshold>2.5721828569658101e-004</threshold>
            <left_val>-0.0842818319797516</left_val>
            <right_val>0.0724921524524689</right_val></_></_>
        <_>
          <!-- tree 56 -->
          <_>
            <!-- root node -->
            <feature>
              <rects>
                <_>
                  12 17 3 2 -1.</_>
                <_>
                  13 18 1 2 3.</_></rects>
              <tilted>1</tilted></feature>
            <threshold>3.5227970220148563e-003</threshold>
            <left_val>0.0513103008270264</left_val>
            <right_val>-0.6316776871681213</right_val></_></_>
        <_>
          <!-- tree 57 -->
          <_>
            <!-- root node -->
            <feature>
              <rects>
                <_>
                  11 21 8 2 -1.</_>
                <_>
                  15 21 4 1 2.</_>
                <_>
                  11 22 4 1 2.</_></rects>
              <tilted>0</tilted></feature>
            <threshold>3.3666628878563643e-003</threshold>
            <left_val>-0.0423898994922638</left_val>
            <right_val>0.2969495058059692</right_val></_></_>
        <_>
          <!-- tree 58 -->
          <_>
            <!-- root node -->
            <feature>
              <rects>
                <_>
                  12 3 9 6 -1.</_>
                <_>
                  10 5 9 2 3.</_></rects>
              <tilted>1</tilted></feature>
            <threshold>-0.0323662497103214</threshold>
            <left_val>0.4715206027030945</left_val>
            <right_val>-0.0650287196040154</right_val></_></_></trees>
      <stage_threshold>-1.2881779670715332</stage_threshold>
      <parent>2</parent>
      <next>-1</next></_>
    <_>
      <!-- stage 4 -->
      <trees>
        <_>
          <!-- tree 0 -->
          <_>
            <!-- root node -->
            <feature>
              <rects>
                <_>
                  8 19 8 2 -1.</_>
                <_>
                  8 20 8 1 2.</_></rects>
              <tilted>0</tilted></feature>
            <threshold>-1.6893809661269188e-003</threshold>
            <left_val>0.4392881095409393</left_val>
            <right_val>-0.4549737870693207</right_val></_></_>
        <_>
          <!-- tree 1 -->
          <_>
            <!-- root node -->
            <feature>
              <rects>
                <_>
                  17 12 6 10 -1.</_>
                <_>
                  20 12 3 5 2.</_>
                <_>
                  17 17 3 5 2.</_></rects>
              <tilted>0</tilted></feature>
            <threshold>-6.4522409811615944e-003</threshold>
            <left_val>0.2635653913021088</left_val>
            <right_val>-0.1667556017637253</right_val></_></_>
        <_>
          <!-- tree 2 -->
          <_>
            <!-- root node -->
            <feature>
              <rects>
                <_>
                  11 3 6 10 -1.</_>
                <_>
                  13 5 2 10 3.</_></rects>
              <tilted>1</tilted></feature>
            <threshold>0.0270159505307674</threshold>
            <left_val>-0.1288429945707321</left_val>
            <right_val>0.4778428077697754</right_val></_></_>
        <_>
          <!-- tree 3 -->
          <_>
            <!-- root node -->
            <feature>
              <rects>
                <_>
                  12 7 7 6 -1.</_>
                <_>
                  10 9 7 2 3.</_></rects>
              <tilted>1</tilted></feature>
            <threshold>0.0145488902926445</threshold>
            <left_val>-0.1746339946985245</left_val>
            <right_val>0.2004145979881287</right_val></_></_>
        <_>
          <!-- tree 4 -->
          <_>
            <!-- root node -->
            <feature>
              <rects>
                <_>
                  7 11 5 4 -1.</_>
                <_>
                  6 12 5 2 2.</_></rects>
              <tilted>1</tilted></feature>
            <threshold>3.2704370096325874e-003</threshold>
            <left_val>-0.1389756947755814</left_val>
            <right_val>0.3474164009094238</right_val></_></_>
        <_>
          <!-- tree 5 -->
          <_>
            <!-- root node -->
            <feature>
              <rects>
                <_>
                  12 7 7 6 -1.</_>
                <_>
                  10 9 7 2 3.</_></rects>
              <tilted>1</tilted></feature>
            <threshold>-0.0116245802491903</threshold>
            <left_val>0.2781549096107483</left_val>
            <right_val>-0.0665920972824097</right_val></_></_>
        <_>
          <!-- tree 6 -->
          <_>
            <!-- root node -->
            <feature>
              <rects>
                <_>
                  6 7 12 9 -1.</_>
                <_>
                  10 10 4 3 9.</_></rects>
              <tilted>0</tilted></feature>
            <threshold>0.0270538702607155</threshold>
            <left_val>-0.2254793941974640</left_val>
            <right_val>0.1839217990636826</right_val></_></_>
        <_>
          <!-- tree 7 -->
          <_>
            <!-- root node -->
            <feature>
              <rects>
                <_>
                  12 9 1 12 -1.</_>
                <_>
                  8 13 1 4 3.</_></rects>
              <tilted>1</tilted></feature>
            <threshold>-1.6669089673087001e-003</threshold>
            <left_val>0.1480167955160141</left_val>
            <right_val>-0.0880245715379715</right_val></_></_>
        <_>
          <!-- tree 8 -->
          <_>
            <!-- root node -->
            <feature>
              <rects>
                <_>
                  12 9 12 1 -1.</_>
                <_>
                  16 13 4 1 3.</_></rects>
              <tilted>1</tilted></feature>
            <threshold>0.0120579497888684</threshold>
            <left_val>-0.1671102046966553</left_val>
            <right_val>0.3277094960212708</right_val></_></_>
        <_>
          <!-- tree 9 -->
          <_>
            <!-- root node -->
            <feature>
              <rects>
                <_>
                  19 12 4 8 -1.</_>
                <_>
                  20 13 2 8 2.</_></rects>
              <tilted>1</tilted></feature>
            <threshold>3.5487259738147259e-003</threshold>
            <left_val>-0.0898197963833809</left_val>
            <right_val>0.1745547950267792</right_val></_></_>
        <_>
          <!-- tree 10 -->
          <_>
            <!-- root node -->
            <feature>
              <rects>
                <_>
                  1 10 8 6 -1.</_>
                <_>
                  3 10 4 6 2.</_></rects>
              <tilted>0</tilted></feature>
            <threshold>0.0146578997373581</threshold>
            <left_val>-0.0861160606145859</left_val>
            <right_val>0.4633789062500000</right_val></_></_>
        <_>
          <!-- tree 11 -->
          <_>
            <!-- root node -->
            <feature>
              <rects>
                <_>
                  16 14 2 3 -1.</_>
                <_>
                  15 15 2 1 3.</_></rects>
              <tilted>1</tilted></feature>
            <threshold>1.4936299994587898e-003</threshold>
            <left_val>0.0611008703708649</left_val>
            <right_val>-0.1507994979619980</right_val></_></_>
        <_>
          <!-- tree 12 -->
          <_>
            <!-- root node -->
            <feature>
              <rects>
                <_>
                  8 14 3 2 -1.</_>
                <_>
                  9 15 1 2 3.</_></rects>
              <tilted>1</tilted></feature>
            <threshold>-1.4097579987719655e-003</threshold>
            <left_val>-0.6046776175498962</left_val>
            <right_val>0.0528564713895321</right_val></_></_>
        <_>
          <!-- tree 13 -->
          <_>
            <!-- root node -->
            <feature>
              <rects>
                <_>
                  16 4 3 2 -1.</_>
                <_>
                  17 5 1 2 3.</_></rects>
              <tilted>1</tilted></feature>
            <threshold>-1.2501539895310998e-003</threshold>
            <left_val>-0.3191862106323242</left_val>
            <right_val>0.0457963198423386</right_val></_></_>
        <_>
          <!-- tree 14 -->
          <_>
            <!-- root node -->
            <feature>
              <rects>
                <_>
                  9 5 1 3 -1.</_>
                <_>
                  8 6 1 1 3.</_></rects>
              <tilted>1</tilted></feature>
            <threshold>-1.0137689532712102e-003</threshold>
            <left_val>-0.5282670259475708</left_val>
            <right_val>0.0669700428843498</right_val></_></_>
        <_>
          <!-- tree 15 -->
          <_>
            <!-- root node -->
            <feature>
              <rects>
                <_>
                  12 0 4 12 -1.</_>
                <_>
                  13 1 2 12 2.</_></rects>
              <tilted>1</tilted></feature>
            <threshold>0.0271015595644712</threshold>
            <left_val>-0.0306075792759657</left_val>
            <right_val>0.6323804259300232</right_val></_></_>
        <_>
          <!-- tree 16 -->
          <_>
            <!-- root node -->
            <feature>
              <rects>
                <_>
                  12 0 12 4 -1.</_>
                <_>
                  11 1 12 2 2.</_></rects>
              <tilted>1</tilted></feature>
            <threshold>7.7118859626352787e-003</threshold>
            <left_val>-0.1246723011136055</left_val>
            <right_val>0.3261952996253967</right_val></_></_>
        <_>
          <!-- tree 17 -->
          <_>
            <!-- root node -->
            <feature>
              <rects>
                <_>
                  21 11 2 5 -1.</_>
                <_>
                  21 11 1 5 2.</_></rects>
              <tilted>0</tilted></feature>
            <threshold>-3.1612520106136799e-003</threshold>
            <left_val>0.3733243048191071</left_val>
            <right_val>-0.0355929993093014</right_val></_></_>
        <_>
          <!-- tree 18 -->
          <_>
            <!-- root node -->
            <feature>
              <rects>
                <_>
                  1 11 2 5 -1.</_>
                <_>
                  2 11 1 5 2.</_></rects>
              <tilted>0</tilted></feature>
            <threshold>-9.9199754185974598e-004</threshold>
            <left_val>0.3394018113613129</left_val>
            <right_val>-0.1058956980705261</right_val></_></_>
        <_>
          <!-- tree 19 -->
          <_>
            <!-- root node -->
            <feature>
              <rects>
                <_>
                  11 20 3 3 -1.</_>
                <_>
                  12 20 1 3 3.</_></rects>
              <tilted>0</tilted></feature>
            <threshold>1.7463470576331019e-003</threshold>
            <left_val>0.0333503298461437</left_val>
            <right_val>-0.6015319228172302</right_val></_></_>
        <_>
          <!-- tree 20 -->
          <_>
            <!-- root node -->
            <feature>
              <rects>
                <_>
                  1 14 2 1 -1.</_>
                <_>
                  2 14 1 1 2.</_></rects>
              <tilted>0</tilted></feature>
            <threshold>6.2080893258098513e-005</threshold>
            <left_val>-0.1915650963783264</left_val>
            <right_val>0.1827868968248367</right_val></_></_>
        <_>
          <!-- tree 21 -->
          <_>
            <!-- root node -->
            <feature>
              <rects>
                <_>
                  11 20 3 3 -1.</_>
                <_>
                  12 20 1 3 3.</_></rects>
              <tilted>0</tilted></feature>
            <threshold>-5.9802760370075703e-004</threshold>
            <left_val>-0.3135462999343872</left_val>
            <right_val>0.0728795602917671</right_val></_></_>
        <_>
          <!-- tree 22 -->
          <_>
            <!-- root node -->
            <feature>
              <rects>
                <_>
                  12 4 6 6 -1.</_>
                <_>
                  10 6 6 2 3.</_></rects>
              <tilted>1</tilted></feature>
            <threshold>0.0106390397995710</threshold>
            <left_val>-0.1422798931598663</left_val>
            <right_val>0.2378496974706650</right_val></_></_>
        <_>
          <!-- tree 23 -->
          <_>
            <!-- root node -->
            <feature>
              <rects>
                <_>
                  9 10 6 9 -1.</_>
                <_>
                  9 10 3 9 2.</_></rects>
              <tilted>0</tilted></feature>
            <threshold>0.0158511903136969</threshold>
            <left_val>-0.0989777967333794</left_val>
            <right_val>0.3595019876956940</right_val></_></_>
        <_>
          <!-- tree 24 -->
          <_>
            <!-- root node -->
            <feature>
              <rects>
                <_>
                  12 11 6 1 -1.</_>
                <_>
                  14 13 2 1 3.</_></rects>
              <tilted>1</tilted></feature>
            <threshold>1.1560240527614951e-003</threshold>
            <left_val>-0.1788588017225266</left_val>
            <right_val>0.1974505931138992</right_val></_></_>
        <_>
          <!-- tree 25 -->
          <_>
            <!-- root node -->
            <feature>
              <rects>
                <_>
                  17 2 3 4 -1.</_>
                <_>
                  16 3 3 2 2.</_></rects>
              <tilted>1</tilted></feature>
            <threshold>0.0125060500577092</threshold>
            <left_val>-0.0242708306759596</left_val>
            <right_val>0.4194136857986450</right_val></_></_>
        <_>
          <!-- tree 26 -->
          <_>
            <!-- root node -->
            <feature>
              <rects>
                <_>
                  5 14 5 4 -1.</_>
                <_>
                  4 15 5 2 2.</_></rects>
              <tilted>1</tilted></feature>
            <threshold>5.9540080837905407e-003</threshold>
            <left_val>-0.0797194316983223</left_val>
            <right_val>0.3818073868751526</right_val></_></_>
        <_>
          <!-- tree 27 -->
          <_>
            <!-- root node -->
            <feature>
              <rects>
                <_>
                  15 16 4 8 -1.</_>
                <_>
                  15 18 4 4 2.</_></rects>
              <tilted>0</tilted></feature>
            <threshold>-2.8066120576113462e-003</threshold>
            <left_val>0.1417928040027618</left_val>
            <right_val>-0.0762213021516800</right_val></_></_>
        <_>
          <!-- tree 28 -->
          <_>
            <!-- root node -->
            <feature>
              <rects>
                <_>
                  1 19 16 5 -1.</_>
                <_>
                  5 19 8 5 2.</_></rects>
              <tilted>0</tilted></feature>
            <threshold>0.0555276609957218</threshold>
            <left_val>0.0653137490153313</left_val>
            <right_val>-0.5339890718460083</right_val></_></_>
        <_>
          <!-- tree 29 -->
          <_>
            <!-- root node -->
            <feature>
              <rects>
                <_>
                  11 16 3 3 -1.</_>
                <_>
                  11 17 3 1 3.</_></rects>
              <tilted>0</tilted></feature>
            <threshold>-3.9616200956515968e-004</threshold>
            <left_val>-0.3592464029788971</left_val>
            <right_val>0.0775069296360016</right_val></_></_>
        <_>
          <!-- tree 30 -->
          <_>
            <!-- root node -->
            <feature>
              <rects>
                <_>
                  12 5 6 8 -1.</_>
                <_>
                  14 7 2 8 3.</_></rects>
              <tilted>1</tilted></feature>
            <threshold>0.0210208408534527</threshold>
            <left_val>-0.1111174970865250</left_val>
            <right_val>0.3081532120704651</right_val></_></_>
        <_>
          <!-- tree 31 -->
          <_>
            <!-- root node -->
            <feature>
              <rects>
                <_>
                  17 10 5 3 -1.</_>
                <_>
                  17 11 5 1 3.</_></rects>
              <tilted>0</tilted></feature>
            <threshold>-8.5512979421764612e-004</threshold>
            <left_val>-0.3729279935359955</left_val>
            <right_val>0.0813683420419693</right_val></_></_>
        <_>
          <!-- tree 32 -->
          <_>
            <!-- root node -->
            <feature>
              <rects>
                <_>
                  2 10 5 3 -1.</_>
                <_>
                  2 11 5 1 3.</_></rects>
              <tilted>0</tilted></feature>
            <threshold>2.5657850783318281e-003</threshold>
            <left_val>0.0504768900573254</left_val>
            <right_val>-0.6329522132873535</right_val></_></_>
        <_>
          <!-- tree 33 -->
          <_>
            <!-- root node -->
            <feature>
              <rects>
                <_>
                  15 16 1 6 -1.</_>
                <_>
                  15 18 1 2 3.</_></rects>
              <tilted>0</tilted></feature>
            <threshold>7.2565488517284393e-004</threshold>
            <left_val>-0.0828345268964767</left_val>
            <right_val>0.1456170976161957</right_val></_></_>
        <_>
          <!-- tree 34 -->
          <_>
            <!-- root node -->
            <feature>
              <rects>
                <_>
                  4 13 5 3 -1.</_>
                <_>
                  4 14 5 1 3.</_></rects>
              <tilted>0</tilted></feature>
            <threshold>1.1166669428348541e-003</threshold>
            <left_val>0.0826820880174637</left_val>
            <right_val>-0.3935248851776123</right_val></_></_>
        <_>
          <!-- tree 35 -->
          <_>
            <!-- root node -->
            <feature>
              <rects>
                <_>
                  15 16 4 8 -1.</_>
                <_>
                  15 18 4 4 2.</_></rects>
              <tilted>0</tilted></feature>
            <threshold>0.0167202502489090</threshold>
            <left_val>-0.0190626308321953</left_val>
            <right_val>0.2880255877971649</right_val></_></_>
        <_>
          <!-- tree 36 -->
          <_>
            <!-- root node -->
            <feature>
              <rects>
                <_>
                  5 16 4 8 -1.</_>
                <_>
                  5 18 4 4 2.</_></rects>
              <tilted>0</tilted></feature>
            <threshold>-1.5726760029792786e-003</threshold>
            <left_val>0.2291361987590790</left_val>
            <right_val>-0.1434133946895599</right_val></_></_>
        <_>
          <!-- tree 37 -->
          <_>
            <!-- root node -->
            <feature>
              <rects>
                <_>
                  15 17 2 4 -1.</_>
                <_>
                  15 18 2 2 2.</_></rects>
              <tilted>0</tilted></feature>
            <threshold>1.1350420536473393e-003</threshold>
            <left_val>0.0652503669261932</left_val>
            <right_val>-0.3615669012069702</right_val></_></_>
        <_>
          <!-- tree 38 -->
          <_>
            <!-- root node -->
            <feature>
              <rects>
                <_>
                  7 17 2 4 -1.</_>
                <_>
                  7 18 2 2 2.</_></rects>
              <tilted>0</tilted></feature>
            <threshold>1.1453749903012067e-004</threshold>
            <left_val>-0.2122793942689896</left_val>
            <right_val>0.2155800014734268</right_val></_></_>
        <_>
          <!-- tree 39 -->
          <_>
            <!-- root node -->
            <feature>
              <rects>
                <_>
                  17 18 3 3 -1.</_>
                <_>
                  18 19 1 3 3.</_></rects>
              <tilted>1</tilted></feature>
            <threshold>-4.7466270625591278e-003</threshold>
            <left_val>0.1842786967754364</left_val>
            <right_val>-0.0261358506977558</right_val></_></_>
        <_>
          <!-- tree 40 -->
          <_>
            <!-- root node -->
            <feature>
              <rects>
                <_>
                  7 18 3 3 -1.</_>
                <_>
                  6 19 3 1 3.</_></rects>
              <tilted>1</tilted></feature>
            <threshold>4.4048959389328957e-003</threshold>
            <left_val>-0.0709056779742241</left_val>
            <right_val>0.4944266974925995</right_val></_></_>
        <_>
          <!-- tree 41 -->
          <_>
            <!-- root node -->
            <feature>
              <rects>
                <_>
                  13 17 3 7 -1.</_>
                <_>
                  14 17 1 7 3.</_></rects>
              <tilted>0</tilted></feature>
            <threshold>1.1044699931517243e-003</threshold>
            <left_val>0.0885177105665207</left_val>
            <right_val>-0.3129090070724487</right_val></_></_>
        <_>
          <!-- tree 42 -->
          <_>
            <!-- root node -->
            <feature>
              <rects>
                <_>
                  8 14 3 6 -1.</_>
                <_>
                  9 15 1 6 3.</_></rects>
              <tilted>1</tilted></feature>
            <threshold>5.8958511799573898e-003</threshold>
            <left_val>0.0611819699406624</left_val>
            <right_val>-0.5607814788818359</right_val></_></_>
        <_>
          <!-- tree 43 -->
          <_>
            <!-- root node -->
            <feature>
              <rects>
                <_>
                  15 17 4 3 -1.</_>
                <_>
                  14 18 4 1 3.</_></rects>
              <tilted>1</tilted></feature>
            <threshold>2.8527670074254274e-003</threshold>
            <left_val>0.0357003211975098</left_val>
            <right_val>-0.2426203936338425</right_val></_></_>
        <_>
          <!-- tree 44 -->
          <_>
            <!-- root node -->
            <feature>
              <rects>
                <_>
                  1 2 8 4 -1.</_>
                <_>
                  3 2 4 4 2.</_></rects>
              <tilted>0</tilted></feature>
            <threshold>-1.1110319755971432e-003</threshold>
            <left_val>0.2289648950099945</left_val>
            <right_val>-0.1387621015310288</right_val></_></_>
        <_>
          <!-- tree 45 -->
          <_>
            <!-- root node -->
            <feature>
              <rects>
                <_>
                  17 4 3 1 -1.</_>
                <_>
                  18 5 1 1 3.</_></rects>
              <tilted>1</tilted></feature>
            <threshold>1.6582909738644958e-003</threshold>
            <left_val>0.0460296496748924</left_val>
            <right_val>-0.4592741131782532</right_val></_></_>
        <_>
          <!-- tree 46 -->
          <_>
            <!-- root node -->
            <feature>
              <rects>
                <_>
                  9 17 3 4 -1.</_>
                <_>
                  10 18 1 4 3.</_></rects>
              <tilted>1</tilted></feature>
            <threshold>2.8263919521123171e-003</threshold>
            <left_val>0.0782189667224884</left_val>
            <right_val>-0.4329442083835602</right_val></_></_>
        <_>
          <!-- tree 47 -->
          <_>
            <!-- root node -->
            <feature>
              <rects>
                <_>
                  17 4 3 1 -1.</_>
                <_>
                  18 5 1 1 3.</_></rects>
              <tilted>1</tilted></feature>
            <threshold>-7.7620492083951831e-004</threshold>
            <left_val>-0.3348534107208252</left_val>
            <right_val>0.0374629907310009</right_val></_></_>
        <_>
          <!-- tree 48 -->
          <_>
            <!-- root node -->
            <feature>
              <rects>
                <_>
                  7 4 1 3 -1.</_>
                <_>
                  6 5 1 1 3.</_></rects>
              <tilted>1</tilted></feature>
            <threshold>-4.8921979032456875e-004</threshold>
            <left_val>-0.3622840940952301</left_val>
            <right_val>0.0907404422760010</right_val></_></_>
        <_>
          <!-- tree 49 -->
          <_>
            <!-- root node -->
            <feature>
              <rects>
                <_>
                  5 8 15 15 -1.</_>
                <_>
                  10 13 5 5 9.</_></rects>
              <tilted>0</tilted></feature>
            <threshold>0.3474561870098114</threshold>
            <left_val>-0.0443197898566723</left_val>
            <right_val>0.4468939006328583</right_val></_></_>
        <_>
          <!-- tree 50 -->
          <_>
            <!-- root node -->
            <feature>
              <rects>
                <_>
                  6 1 4 5 -1.</_>
                <_>
                  7 2 2 5 2.</_></rects>
              <tilted>1</tilted></feature>
            <threshold>0.0115257902070880</threshold>
            <left_val>-0.0473459511995316</left_val>
            <right_val>0.6115794181823731</right_val></_></_>
        <_>
          <!-- tree 51 -->
          <_>
            <!-- root node -->
            <feature>
              <rects>
                <_>
                  20 12 3 9 -1.</_>
                <_>
                  21 13 1 9 3.</_></rects>
              <tilted>1</tilted></feature>
            <threshold>3.2011941075325012e-003</threshold>
            <left_val>-0.0551566407084465</left_val>
